<?xml version="1.0"?>
<opencv_storage>
<cascade>
  <stageType>BOOST</stageType>
  <featureType>HAAR</featureType>
  <height>24</height>
  <width>24</width>
  <stageParams>
    <boostType>GAB</boostType>
    <minHitRate>9.9500000476837158e-01</minHitRate>
    <maxFalseAlarm>5.0000000000000000e-01</maxFalseAlarm>
    <weightTrimRate>9.4999999999999996e-01</weightTrimRate>
    <maxDepth>1</maxDepth>
    <maxWeakCount>100</maxWeakCount></stageParams>
  <featureParams>
    <maxCatCount>0</maxCatCount>
    <featSize>1</featSize>
    <mode>BASIC</mode></featureParams>
  <stageNum>19</stageNum>
  <stages>
    <!-- stage 0 -->
    <_>
      <maxWeakCount>2</maxWeakCount>
      <stageThreshold>-1.7364554107189178e-01</stageThreshold>
      <weakClassifiers>
        <_>
          <internalNodes>
            0 -1 34 3.1245194375514984e-02</internalNodes>
          <leafValues>
            -8.6792451143264771e-01 8.0669146776199341e-01</leafValues></_>
        <_>
          <internalNodes>
            0 -1 37 -8.4211463108658791e-03</internalNodes>
          <leafValues>
            6.9427901506423950e-01 -7.2554552555084229e-01</leafValues></_></weakClassifiers></_>
    <!-- stage 1 -->
    <_>
      <maxWeakCount>3</maxWeakCount>
      <stageThreshold>2.9948535561561584e-01</stageThreshold>
      <weakClassifiers>
        <_>
          <internalNodes>
            0 -1 76 -5.7836528867483139e-03</internalNodes>
          <leafValues>
            7.5384616851806641e-01 -6.1739128828048706e-01</leafValues></_>
        <_>
          <internalNodes>
            0 -1 24 2.4289218708872795e-03</internalNodes>
          <leafValues>
            5.3291237354278564e-01 -8.1829255819320679e-01</leafValues></_>
        <_>
          <internalNodes>
            0 -1 35 1.1362950317561626e-02</internalNodes>
          <leafValues>
            -9.0941596031188965e-01 3.8396430015563965e-01</leafValues></_></weakClassifiers></_>
    <!-- stage 2 -->
    <_>
      <maxWeakCount>4</maxWeakCount>
      <stageThreshold>-4.1083303093910217e-01</stageThreshold>
      <weakClassifiers>
        <_>
          <internalNodes>
            0 -1 98 9.9598458036780357e-03</internalNodes>
          <leafValues>
            -7.8378379344940186e-01 6.0797339677810669e-01</leafValues></_>
        <_>
          <internalNodes>
            0 -1 101 -3.9257248863577843e-03</internalNodes>
          <leafValues>
            6.4054441452026367e-01 -5.5656474828720093e-01</leafValues></_>
        <_>
          <internalNodes>
            0 -1 32 -2.2641699761152267e-03</internalNodes>
          <leafValues>
            5.5370134115219116e-01 -5.8387327194213867e-01</leafValues></_>
        <_>
          <internalNodes>
            0 -1 62 1.4941086992621422e-02</internalNodes>
          <leafValues>
            3.7581419944763184e-01 -8.5026192665100098e-01</leafValues></_></weakClassifiers></_>
    <!-- stage 3 -->
    <_>
      <maxWeakCount>4</maxWeakCount>
      <stageThreshold>-1.0890428721904755e-01</stageThreshold>
      <weakClassifiers>
        <_>
          <internalNodes>
            0 -1 47 6.1207497492432594e-03</internalNodes>
          <leafValues>
            -6.0869562625885010e-01 6.3957595825195313e-01</leafValues></_>
        <_>
          <internalNodes>
            0 -1 50 -1.1434478685259819e-02</internalNodes>
          <leafValues>
            5.8597272634506226e-01 -6.5375947952270508e-01</leafValues></_>
        <_>
          <internalNodes>
            0 -1 1 9.5463916659355164e-02</internalNodes>
          <leafValues>
            -3.6921617388725281e-01 8.0140644311904907e-01</leafValues></_>
        <_>
          <internalNodes>
            0 -1 97 1.1813559569418430e-02</internalNodes>
          <leafValues>
            -8.1821596622467041e-01 3.5214436054229736e-01</leafValues></_></weakClassifiers></_>
    <!-- stage 4 -->
    <_>
      <maxWeakCount>4</maxWeakCount>
      <stageThreshold>-2.2943857312202454e-01</stageThreshold>
      <weakClassifiers>
        <_>
          <internalNodes>
            0 -1 54 1.8980412278324366e-03</internalNodes>
          <leafValues>
            -6.2886595726013184e-01 6.6906476020812988e-01</leafValues></_>
        <_>
          <internalNodes>
            0 -1 99 -8.6706221103668213e-02</internalNodes>
          <leafValues>
            7.8185015916824341e-01 -3.5794368386268616e-01</leafValues></_>
        <_>
          <internalNodes>
            0 -1 85 -4.4390987604856491e-03</internalNodes>
          <leafValues>
            4.0150666236877441e-01 -6.9514834880828857e-01</leafValues></_>
        <_>
          <internalNodes>
            0 -1 39 1.9263859838247299e-02</internalNodes>
          <leafValues>
            -7.4158334732055664e-01 3.5586443543434143e-01</leafValues></_></weakClassifiers></_>
    <!-- stage 5 -->
    <_>
      <maxWeakCount>5</maxWeakCount>
      <stageThreshold>-4.0614488720893860e-01</stageThreshold>
      <weakClassifiers>
        <_>
          <internalNodes>
            0 -1 55 4.1120000183582306e-02</internalNodes>
          <leafValues>
            5.9090906381607056e-01 -8.5074627399444580e-01</leafValues></_>
        <_>
          <internalNodes>
            0 -1 92 4.1739000007510185e-03</internalNodes>
          <leafValues>
            -6.5515148639678955e-01 4.8692959547042847e-01</leafValues></_>
        <_>
          <internalNodes>
            0 -1 60 -1.8083859235048294e-02</internalNodes>
          <leafValues>
            8.6695891618728638e-01 -3.3826944231987000e-01</leafValues></_>
        <_>
          <internalNodes>
            0 -1 49 -5.5911969393491745e-03</internalNodes>
          <leafValues>
            5.3616303205490112e-01 -5.5024719238281250e-01</leafValues></_>
        <_>
          <internalNodes>
            0 -1 18 -2.2721141576766968e-02</internalNodes>
          <leafValues>
            -3.7675592303276062e-01 7.8304111957550049e-01</leafValues></_></weakClassifiers></_>
    <!-- stage 6 -->
    <_>
      <maxWeakCount>6</maxWeakCount>
      <stageThreshold>-4.2404517531394958e-01</stageThreshold>
      <weakClassifiers>
        <_>
          <internalNodes>
            0 -1 83 1.6600780189037323e-02</internalNodes>
          <leafValues>
            -6.0465115308761597e-01 6.1245673894882202e-01</leafValues></_>
        <_>
          <internalNodes>
            0 -1 20 4.2956896126270294e-02</internalNodes>
          <leafValues>
            -2.9701134562492371e-01 8.6950510740280151e-01</leafValues></_>
        <_>
          <internalNodes>
            0 -1 67 9.5841259462758899e-04</internalNodes>
          <leafValues>
            -5.2788972854614258e-01 4.8454886674880981e-01</leafValues></_>
        <_>
          <internalNodes>
            0 -1 104 -6.6688969731330872e-02</internalNodes>
          <leafValues>
            8.8443851470947266e-01 -2.6910430192947388e-01</leafValues></_>
        <_>
          <internalNodes>
            0 -1 36 3.6933703813701868e-03</internalNodes>
          <leafValues>
            -2.6874855160713196e-01 7.9265999794006348e-01</leafValues></_>
        <_>
          <internalNodes>
            0 -1 94 -2.1154774003662169e-05</internalNodes>
          <leafValues>
            4.4267612695693970e-01 -5.3048723936080933e-01</leafValues></_></weakClassifiers></_>
    <!-- stage 7 -->
    <_>
      <maxWeakCount>6</maxWeakCount>
      <stageThreshold>-4.3305966258049011e-01</stageThreshold>
      <weakClassifiers>
        <_>
          <internalNodes>
            0 -1 51 6.5182931721210480e-03</internalNodes>
          <leafValues>
            -4.7252747416496277e-01 5.9154927730560303e-01</leafValues></_>
        <_>
          <internalNodes>
            0 -1 74 1.4805543469265103e-04</internalNodes>
          <leafValues>
            -6.3092619180679321e-01 4.2113053798675537e-01</leafValues></_>
        <_>
          <internalNodes>
            0 -1 6 -8.6951125413179398e-03</internalNodes>
          <leafValues>
            -2.2350655496120453e-01 9.6489721536636353e-01</leafValues></_>
        <_>
          <internalNodes>
            0 -1 75 -2.9619764536619186e-03</internalNodes>
          <leafValues>
            -8.2948750257492065e-01 2.8827837109565735e-01</leafValues></_>
        <_>
          <internalNodes>
            0 -1 95 -9.3151000328361988e-04</internalNodes>
          <leafValues>
            -7.6733231544494629e-01 2.5428119301795959e-01</leafValues></_>
        <_>
          <internalNodes>
            0 -1 64 6.8984262179583311e-04</internalNodes>
          <leafValues>
            -5.0033801794052124e-01 3.7458688020706177e-01</leafValues></_></weakClassifiers></_>
    <!-- stage 8 -->
    <_>
      <maxWeakCount>6</maxWeakCount>
      <stageThreshold>-9.4360262155532837e-01</stageThreshold>
      <weakClassifiers>
        <_>
          <internalNodes>
            0 -1 108 -3.4652244299650192e-02</internalNodes>
          <leafValues>
            9.1780823469161987e-01 -3.9301309734582901e-02</leafValues></_>
        <_>
          <internalNodes>
            0 -1 44 -5.9079297352582216e-04</internalNodes>
          <leafValues>
            4.5643129944801331e-01 -5.2869004011154175e-01</leafValues></_>
        <_>
          <internalNodes>
            0 -1 3 2.1546564996242523e-02</internalNodes>
          <leafValues>
            -5.4714834690093994e-01 3.9979925751686096e-01</leafValues></_>
        <_>
          <internalNodes>
            0 -1 84 -2.1817758679389954e-03</internalNodes>
          <leafValues>
            -5.4369831085205078e-01 3.9787000417709351e-01</leafValues></_>
        <_>
          <internalNodes>
            0 -1 30 -1.1718533001840115e-02</internalNodes>
          <leafValues>
            -6.2634879350662231e-01 2.8598225116729736e-01</leafValues></_>
        <_>
          <internalNodes>
            0 -1 82 -4.0184869430959225e-03</internalNodes>
          <leafValues>
            3.4924522042274475e-01 -5.6247287988662720e-01</leafValues></_></weakClassifiers></_>
    <!-- stage 9 -->
    <_>
      <maxWeakCount>7</maxWeakCount>
      <stageThreshold>-8.0856233835220337e-01</stageThreshold>
      <weakClassifiers>
        <_>
          <internalNodes>
            0 -1 29 5.7739876210689545e-02</internalNodes>
          <leafValues>
            5.0609755516052246e-01 -8.7234044075012207e-01</leafValues></_>
        <_>
          <internalNodes>
            0 -1 86 -1.0914873331785202e-02</internalNodes>
          <leafValues>
            -7.9792189598083496e-01 3.1058719754219055e-01</leafValues></_>
        <_>
          <internalNodes>
            0 -1 33 -3.8660634309053421e-03</internalNodes>
          <leafValues>
            4.0648978948593140e-01 -6.4696955680847168e-01</leafValues></_>
        <_>
          <internalNodes>
            0 -1 10 2.3061752319335938e-02</internalNodes>
          <leafValues>
            -3.2218813896179199e-01 7.7677023410797119e-01</leafValues></_>
        <_>
          <internalNodes>
            0 -1 77 -5.6142820976674557e-03</internalNodes>
          <leafValues>
            4.3986427783966064e-01 -5.7993239164352417e-01</leafValues></_>
        <_>
          <internalNodes>
            0 -1 81 -1.5660436823964119e-02</internalNodes>
          <leafValues>
            -7.6757699251174927e-01 2.4705857038497925e-01</leafValues></_>
        <_>
          <internalNodes>
            0 -1 17 5.0675752572715282e-03</internalNodes>
          <leafValues>
            -3.2321554422378540e-01 7.9460030794143677e-01</leafValues></_></weakClassifiers></_>
    <!-- stage 10 -->
    <_>
      <maxWeakCount>7</maxWeakCount>
      <stageThreshold>-3.7968999147415161e-01</stageThreshold>
      <weakClassifiers>
        <_>
          <internalNodes>
            0 -1 41 -7.0821808185428381e-04</internalNodes>
          <leafValues>
            -7.9591834545135498e-01 5.0306749343872070e-01</leafValues></_>
        <_>
          <internalNodes>
            0 -1 8 6.3538923859596252e-03</internalNodes>
          <leafValues>
            -3.7469214200973511e-01 5.6958812475204468e-01</leafValues></_>
        <_>
          <internalNodes>
            0 -1 102 6.5165930427610874e-03</internalNodes>
          <leafValues>
            -3.6620423197746277e-01 5.8529186248779297e-01</leafValues></_>
        <_>
          <internalNodes>
            0 -1 52 2.2105120122432709e-02</internalNodes>
          <leafValues>
            -6.1103665828704834e-01 3.4981513023376465e-01</leafValues></_>
        <_>
          <internalNodes>
            0 -1 100 -1.3098040223121643e-01</internalNodes>
          <leafValues>
            7.7357900142669678e-01 -3.2368898391723633e-01</leafValues></_>
        <_>
          <internalNodes>
            0 -1 78 -6.4324978739023209e-03</internalNodes>
          <leafValues>
            5.2023458480834961e-01 -4.5496925711631775e-01</leafValues></_>
        <_>
          <internalNodes>
            0 -1 105 2.1751262247562408e-03</internalNodes>
          <leafValues>
            3.4680077433586121e-01 -6.5729826688766479e-01</leafValues></_></weakClassifiers></_>
    <!-- stage 11 -->
    <_>
      <maxWeakCount>8</maxWeakCount>
      <stageThreshold>-5.2995443344116211e-01</stageThreshold>
      <weakClassifiers>
        <_>
          <internalNodes>
            0 -1 45 -1.0018962202593684e-03</internalNodes>
          <leafValues>
            6.2903225421905518e-01 -2.4409449100494385e-01</leafValues></_>
        <_>
          <internalNodes>
            0 -1 110 -1.5402108430862427e-02</internalNodes>
          <leafValues>
            -3.6170706152915955e-01 5.8013772964477539e-01</leafValues></_>
        <_>
          <internalNodes>
            0 -1 23 -9.4471126794815063e-03</internalNodes>
          <leafValues>
            4.6110734343528748e-01 -4.7604033350944519e-01</leafValues></_>
        <_>
          <internalNodes>
            0 -1 88 -3.3029559999704361e-03</internalNodes>
          <leafValues>
            -5.4339647293090820e-01 3.5770159959793091e-01</leafValues></_>
        <_>
          <internalNodes>
            0 -1 16 7.2509512305259705e-02</internalNodes>
          <leafValues>
            1.5188753604888916e-01 -8.8333165645599365e-01</leafValues></_>
        <_>
          <internalNodes>
            0 -1 31 2.9950472526252270e-03</internalNodes>
          <leafValues>
            2.4313049018383026e-01 -7.6275867223739624e-01</leafValues></_>
        <_>
          <internalNodes>
            0 -1 25 -1.8859591335058212e-02</internalNodes>
          <leafValues>
            -7.7567827701568604e-01 2.1434964239597321e-01</leafValues></_>
        <_>
          <internalNodes>
            0 -1 72 -4.4101998209953308e-03</internalNodes>
          <leafValues>
            8.5636270046234131e-01 -2.7028593420982361e-01</leafValues></_></weakClassifiers></_>
    <!-- stage 12 -->
    <_>
      <maxWeakCount>7</maxWeakCount>
      <stageThreshold>-1.0158678293228149e+00</stageThreshold>
      <weakClassifiers>
        <_>
          <internalNodes>
            0 -1 46 -1.8581796903163195e-03</internalNodes>
          <leafValues>
            -5.5555558204650879e-01 5.4455447196960449e-01</leafValues></_>
        <_>
          <internalNodes>
            0 -1 15 -1.3545021414756775e-02</internalNodes>
          <leafValues>
            -4.4209745526313782e-01 5.3924852609634399e-01</leafValues></_>
        <_>
          <internalNodes>
            0 -1 89 7.4476771987974644e-04</internalNodes>
          <leafValues>
            -3.9586928486824036e-01 5.4830724000930786e-01</leafValues></_>
        <_>
          <internalNodes>
            0 -1 53 3.9344388060271740e-03</internalNodes>
          <leafValues>
            -3.0277064442634583e-01 7.5495368242263794e-01</leafValues></_>
        <_>
          <internalNodes>
            0 -1 2 -2.1021510474383831e-03</internalNodes>
          <leafValues>
            -8.3620977401733398e-01 2.9711270332336426e-01</leafValues></_>
        <_>
          <internalNodes>
            0 -1 0 2.1399469673633575e-01</internalNodes>
          <leafValues>
            -2.8834959864616394e-01 8.2967853546142578e-01</leafValues></_>
        <_>
          <internalNodes>
            0 -1 69 -1.7564402660354972e-03</internalNodes>
          <leafValues>
            4.8629111051559448e-01 -4.2844802141189575e-01</leafValues></_></weakClassifiers></_>
    <!-- stage 13 -->
    <_>
      <maxWeakCount>8</maxWeakCount>
      <stageThreshold>-5.2348494529724121e-01</stageThreshold>
      <weakClassifiers>
        <_>
          <internalNodes>
            0 -1 79 -2.6728883385658264e-02</internalNodes>
          <leafValues>
            -5.5223882198333740e-01 5.2597403526306152e-01</leafValues></_>
        <_>
          <internalNodes>
            0 -1 4 3.6326888948678970e-02</internalNodes>
          <leafValues>
            -2.6694867014884949e-01 7.6765328645706177e-01</leafValues></_>
        <_>
          <internalNodes>
            0 -1 68 1.3683331198990345e-03</internalNodes>
          <leafValues>
            -3.8263624906539917e-01 5.5929416418075562e-01</leafValues></_>
        <_>
          <internalNodes>
            0 -1 103 3.2782023772597313e-03</internalNodes>
          <leafValues>
            -5.6129217147827148e-01 3.6283046007156372e-01</leafValues></_>
        <_>
          <internalNodes>
            0 -1 48 -2.1406408399343491e-02</internalNodes>
          <leafValues>
            -4.9156495928764343e-01 4.3256327509880066e-01</leafValues></_>
        <_>
          <internalNodes>
            0 -1 19 6.1673573218286037e-03</internalNodes>
          <leafValues>
            -3.8880968093872070e-01 6.4118528366088867e-01</leafValues></_>
        <_>
          <internalNodes>
            0 -1 59 3.0445503070950508e-03</internalNodes>
          <leafValues>
            -2.0269693434238434e-01 8.6252081394195557e-01</leafValues></_>
        <_>
          <internalNodes>
            0 -1 73 9.9658442195504904e-04</internalNodes>
          <leafValues>
            3.2036703824996948e-01 -6.3911485671997070e-01</leafValues></_></weakClassifiers></_>
    <!-- stage 14 -->
    <_>
      <maxWeakCount>6</maxWeakCount>
      <stageThreshold>-4.3097177147865295e-01</stageThreshold>
      <weakClassifiers>
        <_>
          <internalNodes>
            0 -1 13 7.9497285187244415e-03</internalNodes>
          <leafValues>
            -6.9811320304870605e-01 5.0310558080673218e-01</leafValues></_>
        <_>
          <internalNodes>
            0 -1 11 -5.8575347065925598e-03</internalNodes>
          <leafValues>
            -2.6549392938613892e-01 7.6286375522613525e-01</leafValues></_>
        <_>
          <internalNodes>
            0 -1 106 -7.9217590391635895e-02</internalNodes>
          <leafValues>
            7.2278243303298950e-01 -2.2045058012008667e-01</leafValues></_>
        <_>
          <internalNodes>
            0 -1 56 1.0904030874371529e-02</internalNodes>
          <leafValues>
            -4.6754157543182373e-01 4.7201961278915405e-01</leafValues></_>
        <_>
          <internalNodes>
            0 -1 63 -3.5481587983667850e-03</internalNodes>
          <leafValues>
            6.4941352605819702e-01 -2.6988464593887329e-01</leafValues></_>
        <_>
          <internalNodes>
            0 -1 66 3.8131922483444214e-02</internalNodes>
          <leafValues>
            3.5935544967651367e-01 -6.3000482320785522e-01</leafValues></_></weakClassifiers></_>
    <!-- stage 15 -->
    <_>
      <maxWeakCount>6</maxWeakCount>
      <stageThreshold>-1.4865875244140625e-01</stageThreshold>
      <weakClassifiers>
        <_>
          <internalNodes>
            0 -1 14 -5.1324643194675446e-02</internalNodes>
          <leafValues>
            -9.4736844301223755e-01 4.7774481773376465e-01</leafValues></_>
        <_>
          <internalNodes>
            0 -1 107 -7.4877096340060234e-03</internalNodes>
          <leafValues>
            5.8730876445770264e-01 -3.7884598970413208e-01</leafValues></_>
        <_>
          <internalNodes>
            0 -1 7 1.1677782237529755e-01</internalNodes>
          <leafValues>
            -2.3430816829204559e-01 8.1619703769683838e-01</leafValues></_>
        <_>
          <internalNodes>
            0 -1 58 -2.7795046567916870e-02</internalNodes>
          <leafValues>
            -5.8264833688735962e-01 3.1093972921371460e-01</leafValues></_>
        <_>
          <internalNodes>
            0 -1 96 4.4950908049941063e-03</internalNodes>
          <leafValues>
            -5.8928698301315308e-01 3.2776340842247009e-01</leafValues></_>
        <_>
          <internalNodes>
            0 -1 40 -1.3695484027266502e-02</internalNodes>
          <leafValues>
            3.5345938801765442e-01 -6.5195256471633911e-01</leafValues></_></weakClassifiers></_>
    <!-- stage 16 -->
    <_>
      <maxWeakCount>8</maxWeakCount>
      <stageThreshold>-5.9741461277008057e-01</stageThreshold>
      <weakClassifiers>
        <_>
          <internalNodes>
            0 -1 26 -2.1825224161148071e-02</internalNodes>
          <leafValues>
            -9.3548387289047241e-01 4.4767442345619202e-01</leafValues></_>
        <_>
          <internalNodes>
            0 -1 21 6.8242067936807871e-04</internalNodes>
          <leafValues>
            3.5069218277931213e-01 -5.7844060659408569e-01</leafValues></_>
        <_>
          <internalNodes>
            0 -1 38 3.0798763036727905e-03</internalNodes>
          <leafValues>
            -6.7378759384155273e-01 2.6022124290466309e-01</leafValues></_>
        <_>
          <internalNodes>
            0 -1 109 -1.7823226749897003e-02</internalNodes>
          <leafValues>
            -2.2489251196384430e-01 8.3787649869918823e-01</leafValues></_>
        <_>
          <internalNodes>
            0 -1 61 -4.1013015434145927e-03</internalNodes>
          <leafValues>
            6.2181180715560913e-01 -2.6371318101882935e-01</leafValues></_>
        <_>
          <internalNodes>
            0 -1 43 -2.3783333599567413e-03</internalNodes>
          <leafValues>
            6.6843795776367188e-01 -2.4710385501384735e-01</leafValues></_>
        <_>
          <internalNodes>
            0 -1 12 2.5819020811468363e-03</internalNodes>
          <leafValues>
            -2.4554048478603363e-01 6.3837116956710815e-01</leafValues></_>
        <_>
          <internalNodes>
            0 -1 93 2.9848625417798758e-03</internalNodes>
          <leafValues>
            2.5438034534454346e-01 -8.3297061920166016e-01</leafValues></_></weakClassifiers></_>
    <!-- stage 17 -->
    <_>
      <maxWeakCount>7</maxWeakCount>
      <stageThreshold>-5.9456849098205566e-01</stageThreshold>
      <weakClassifiers>
        <_>
          <internalNodes>
            0 -1 27 -9.1570010408759117e-04</internalNodes>
          <leafValues>
            -5.9259259700775146e-01 4.8909658193588257e-01</leafValues></_>
        <_>
          <internalNodes>
            0 -1 9 4.3120265007019043e-02</internalNodes>
          <leafValues>
            -2.5842344760894775e-01 7.2210538387298584e-01</leafValues></_>
        <_>
          <internalNodes>
            0 -1 80 -4.1059856303036213e-03</internalNodes>
          <leafValues>
            3.3488118648529053e-01 -5.7766401767730713e-01</leafValues></_>
        <_>
          <internalNodes>
            0 -1 71 1.5024613821879029e-03</internalNodes>
          <leafValues>
            -2.8093296289443970e-01 6.9549465179443359e-01</leafValues></_>
        <_>
          <internalNodes>
            0 -1 5 1.8355225911363959e-03</internalNodes>
          <leafValues>
            2.3750025033950806e-01 -7.5447034835815430e-01</leafValues></_>
        <_>
          <internalNodes>
            0 -1 70 8.3871663082391024e-04</internalNodes>
          <leafValues>
            -3.8924843072891235e-01 4.8674276471138000e-01</leafValues></_>
        <_>
          <internalNodes>
            0 -1 65 -2.0598652772605419e-03</internalNodes>
          <leafValues>
            -7.9542529582977295e-01 2.2660215198993683e-01</leafValues></_></weakClassifiers></_>
    <!-- stage 18 -->
    <_>
      <maxWeakCount>7</maxWeakCount>
      <stageThreshold>-1.2213446199893951e-01</stageThreshold>
      <weakClassifiers>
        <_>
          <internalNodes>
            0 -1 28 -4.5092292129993439e-03</internalNodes>
          <leafValues>
            -8.9999997615814209e-01 4.8059701919555664e-01</leafValues></_>
        <_>
          <internalNodes>
            0 -1 22 7.1719931438565254e-03</internalNodes>
          <leafValues>
            -5.4672336578369141e-01 4.9675154685974121e-01</leafValues></_>
        <_>
          <internalNodes>
            0 -1 91 -2.2869147360324860e-03</internalNodes>
          <leafValues>
            5.4439371824264526e-01 -4.1163018345832825e-01</leafValues></_>
        <_>
          <internalNodes>
            0 -1 57 -1.3423813879489899e-01</internalNodes>
          <leafValues>
            -7.7608114480972290e-01 2.3168465495109558e-01</leafValues></_>
        <_>
          <internalNodes>
            0 -1 42 7.4464557692408562e-03</internalNodes>
          <leafValues>
            2.4838653206825256e-01 -6.8558365106582642e-01</leafValues></_>
        <_>
          <internalNodes>
            0 -1 90 -6.4943446777760983e-03</internalNodes>
          <leafValues>
            7.1817195415496826e-01 -2.7456891536712646e-01</leafValues></_>
        <_>
          <internalNodes>
            0 -1 87 5.5125420913100243e-03</internalNodes>
          <leafValues>
            2.0186170935630798e-01 -9.4571650028228760e-01</leafValues></_></weakClassifiers></_></stages>
  <features>
    <_>
      <rects>
        <_>
          0 0 10 23 -1.</_>
        <_>
          5 0 5 23 2.</_></rects>
      <tilted>0</tilted></_>
    <_>
      <rects>
        <_>
          0 1 8 21 -1.</_>
        <_>
          4 1 4 21 2.</_></rects>
      <tilted>0</tilted></_>
    <_>
      <rects>
        <_>
          0 4 6 2 -1.</_>
        <_>
          0 5 6 1 2.</_></rects>
      <tilted>0</tilted></_>
    <_>
      <rects>
        <_>
          0 8 17 4 -1.</_>
        <_>
          0 10 17 2 2.</_></rects>
      <tilted>0</tilted></_>
    <_>
      <rects>
        <_>
          0 11 6 7 -1.</_>
        <_>
          3 11 3 7 2.</_></rects>
      <tilted>0</tilted></_>
    <_>
      <rects>
        <_>
          0 13 7 2 -1.</_>
        <_>
          0 14 7 1 2.</_></rects>
      <tilted>0</tilted></_>
    <_>
      <rects>
        <_>
          0 22 24 1 -1.</_>
        <_>
          8 22 8 1 2.</_></rects>
      <tilted>0</tilted></_>
    <_>
      <rects>
        <_>
          1 1 6 22 -1.</_>
        <_>
          4 1 3 22 2.</_></rects>
      <tilted>0</tilted></_>
    <_>
      <rects>
        <_>
          1 3 6 2 -1.</_>
        <_>
          4 3 3 2 2.</_></rects>
      <tilted>0</tilted></_>
    <_>
      <rects>
        <_>
          1 4 4 20 -1.</_>
        <_>
          3 4 2 20 2.</_></rects>
      <tilted>0</tilted></_>
    <_>
      <rects>
        <_>
          1 5 4 9 -1.</_>
        <_>
          3 5 2 9 2.</_></rects>
      <tilted>0</tilted></_>
    <_>
      <rects>
        <_>
          1 7 1 6 -1.</_>
        <_>
          1 9 1 2 2.</_></rects>
      <tilted>0</tilted></_>
    <_>
      <rects>
        <_>
          1 7 4 1 -1.</_>
        <_>
          3 7 2 1 2.</_></rects>
      <tilted>0</tilted></_>
    <_>
      <rects>
        <_>
          1 7 9 8 -1.</_>
        <_>
          1 11 9 4 2.</_></rects>
      <tilted>0</tilted></_>
    <_>
      <rects>
        <_>
          1 7 18 8 -1.</_>
        <_>
          1 7 9 4 2.</_>
        <_>
          10 11 9 4 2.</_></rects>
      <tilted>0</tilted></_>
    <_>
      <rects>
        <_>
          1 8 9 1 -1.</_>
        <_>
          4 8 3 1 2.</_></rects>
      <tilted>0</tilted></_>
    <_>
      <rects>
        <_>
          1 11 20 12 -1.</_>
        <_>
          1 11 10 6 2.</_>
        <_>
          11 17 10 6 2.</_></rects>
      <tilted>0</tilted></_>
    <_>
      <rects>
        <_>
          1 18 14 2 -1.</_>
        <_>
          1 18 7 1 2.</_>
        <_>
          8 19 7 1 2.</_></rects>
      <tilted>0</tilted></_>
    <_>
      <rects>
        <_>
          2 0 21 2 -1.</_>
        <_>
          9 0 7 2 2.</_></rects>
      <tilted>0</tilted></_>
    <_>
      <rects>
        <_>
          2 1 4 4 -1.</_>
        <_>
          4 1 2 4 2.</_></rects>
      <tilted>0</tilted></_>
    <_>
      <rects>
        <_>
          2 1 4 21 -1.</_>
        <_>
          4 1 2 21 2.</_></rects>
      <tilted>0</tilted></_>
    <_>
      <rects>
        <_>
          2 1 10 8 -1.</_>
        <_>
          2 1 5 4 2.</_>
        <_>
          7 5 5 4 2.</_></rects>
      <tilted>0</tilted></_>
    <_>
      <rects>
        <_>
          2 2 8 3 -1.</_>
        <_>
          6 2 4 3 2.</_></rects>
      <tilted>0</tilted></_>
    <_>
      <rects>
        <_>
          2 6 18 4 -1.</_>
        <_>
          2 8 18 2 2.</_></rects>
      <tilted>0</tilted></_>
    <_>
      <rects>
        <_>
          2 11 13 10 -1.</_>
        <_>
          2 16 13 5 2.</_></rects>
      <tilted>0</tilted></_>
    <_>
      <rects>
        <_>
          2 12 22 6 -1.</_>
        <_>
          2 12 11 3 2.</_>
        <_>
          13 15 11 3 2.</_></rects>
      <tilted>0</tilted></_>
    <_>
      <rects>
        <_>
          2 14 20 4 -1.</_>
        <_>
          2 14 10 2 2.</_>
        <_>
          12 16 10 2 2.</_></rects>
      <tilted>0</tilted></_>
    <_>
      <rects>
        <_>
          3 7 4 8 -1.</_>
        <_>
          3 7 2 4 2.</_>
        <_>
          5 11 2 4 2.</_></rects>
      <tilted>0</tilted></_>
    <_>
      <rects>
        <_>
          3 7 9 10 -1.</_>
        <_>
          3 12 9 5 2.</_></rects>
      <tilted>0</tilted></_>
    <_>
      <rects>
        <_>
          3 7 18 10 -1.</_>
        <_>
          3 7 9 5 2.</_>
        <_>
          12 12 9 5 2.</_></rects>
      <tilted>0</tilted></_>
    <_>
      <rects>
        <_>
          3 8 6 16 -1.</_>
        <_>
          3 8 3 8 2.</_>
        <_>
          6 16 3 8 2.</_></rects>
      <tilted>0</tilted></_>
    <_>
      <rects>
        <_>
          3 10 1 6 -1.</_>
        <_>
          3 13 1 3 2.</_></rects>
      <tilted>0</tilted></_>
    <_>
      <rects>
        <_>
          4 3 4 6 -1.</_>
        <_>
          4 3 2 3 2.</_>
        <_>
          6 6 2 3 2.</_></rects>
      <tilted>0</tilted></_>
    <_>
      <rects>
        <_>
          4 6 13 4 -1.</_>
        <_>
          4 8 13 2 2.</_></rects>
      <tilted>0</tilted></_>
    <_>
      <rects>
        <_>
          4 8 15 6 -1.</_>
        <_>
          4 11 15 3 2.</_></rects>
      <tilted>0</tilted></_>
    <_>
      <rects>
        <_>
          4 9 13 4 -1.</_>
        <_>
          4 11 13 2 2.</_></rects>
      <tilted>0</tilted></_>
    <_>
      <rects>
        <_>
          4 18 10 2 -1.</_>
        <_>
          4 19 10 1 2.</_></rects>
      <tilted>0</tilted></_>
    <_>
      <rects>
        <_>
          5 5 13 4 -1.</_>
        <_>
          5 7 13 2 2.</_></rects>
      <tilted>0</tilted></_>
    <_>
      <rects>
        <_>
          5 8 10 3 -1.</_>
        <_>
          10 8 5 3 2.</_></rects>
      <tilted>0</tilted></_>
    <_>
      <rects>
        <_>
          5 8 7 6 -1.</_>
        <_>
          5 11 7 3 2.</_></rects>
      <tilted>0</tilted></_>
    <_>
      <rects>
        <_>
          5 11 8 10 -1.</_>
        <_>
          5 16 8 5 2.</_></rects>
      <tilted>0</tilted></_>
    <_>
      <rects>
        <_>
          5 11 12 2 -1.</_>
        <_>
          5 12 12 1 2.</_></rects>
      <tilted>0</tilted></_>
    <_>
      <rects>
        <_>
          5 15 8 3 -1.</_>
        <_>
          9 15 4 3 2.</_></rects>
      <tilted>0</tilted></_>
    <_>
      <rects>
        <_>
          5 17 8 2 -1.</_>
        <_>
          5 17 4 1 2.</_>
        <_>
          9 18 4 1 2.</_></rects>
      <tilted>0</tilted></_>
    <_>
      <rects>
        <_>
          6 0 2 14 -1.</_>
        <_>
          6 0 1 7 2.</_>
        <_>
          7 7 1 7 2.</_></rects>
      <tilted>0</tilted></_>
    <_>
      <rects>
        <_>
          6 1 2 10 -1.</_>
        <_>
          6 1 1 5 2.</_>
        <_>
          7 6 1 5 2.</_></rects>
      <tilted>0</tilted></_>
    <_>
      <rects>
        <_>
          6 2 6 12 -1.</_>
        <_>
          9 2 3 12 2.</_></rects>
      <tilted>0</tilted></_>
    <_>
      <rects>
        <_>
          6 8 2 6 -1.</_>
        <_>
          6 11 2 3 2.</_></rects>
      <tilted>0</tilted></_>
    <_>
      <rects>
        <_>
          6 23 12 1 -1.</_>
        <_>
          10 23 4 1 2.</_></rects>
      <tilted>0</tilted></_>
    <_>
      <rects>
        <_>
          7 4 2 6 -1.</_>
        <_>
          7 7 2 3 2.</_></rects>
      <tilted>0</tilted></_>
    <_>
      <rects>
        <_>
          7 5 11 4 -1.</_>
        <_>
          7 7 11 2 2.</_></rects>
      <tilted>0</tilted></_>
    <_>
      <rects>
        <_>
          7 7 6 4 -1.</_>
        <_>
          10 7 3 4 2.</_></rects>
      <tilted>0</tilted></_>
    <_>
      <rects>
        <_>
          7 8 13 4 -1.</_>
        <_>
          7 10 13 2 2.</_></rects>
      <tilted>0</tilted></_>
    <_>
      <rects>
        <_>
          7 18 8 2 -1.</_>
        <_>
          7 19 8 1 2.</_></rects>
      <tilted>0</tilted></_>
    <_>
      <rects>
        <_>
          8 3 4 7 -1.</_>
        <_>
          10 3 2 7 2.</_></rects>
      <tilted>0</tilted></_>
    <_>
      <rects>
        <_>
          8 4 5 18 -1.</_>
        <_>
          8 13 5 9 2.</_></rects>
      <tilted>0</tilted></_>
    <_>
      <rects>
        <_>
          8 6 4 9 -1.</_>
        <_>
          10 6 2 9 2.</_></rects>
      <tilted>0</tilted></_>
    <_>
      <rects>
        <_>
          8 6 16 16 -1.</_>
        <_>
          8 14 16 8 2.</_></rects>
      <tilted>0</tilted></_>
    <_>
      <rects>
        <_>
          8 13 2 6 -1.</_>
        <_>
          8 15 2 2 2.</_></rects>
      <tilted>0</tilted></_>
    <_>
      <rects>
        <_>
          8 15 8 2 -1.</_>
        <_>
          8 16 8 1 2.</_></rects>
      <tilted>0</tilted></_>
    <_>
      <rects>
        <_>
          8 22 14 2 -1.</_>
        <_>
          15 22 7 2 2.</_></rects>
      <tilted>0</tilted></_>
    <_>
      <rects>
        <_>
          8 22 11 2 -1.</_>
        <_>
          8 23 11 1 2.</_></rects>
      <tilted>0</tilted></_>
    <_>
      <rects>
        <_>
          9 9 6 8 -1.</_>
        <_>
          9 13 6 4 2.</_></rects>
      <tilted>0</tilted></_>
    <_>
      <rects>
        <_>
          9 17 6 2 -1.</_>
        <_>
          9 18 6 1 2.</_></rects>
      <tilted>0</tilted></_>
    <_>
      <rects>
        <_>
          10 0 2 10 -1.</_>
        <_>
          10 0 1 5 2.</_>
        <_>
          11 5 1 5 2.</_></rects>
      <tilted>0</tilted></_>
    <_>
      <rects>
        <_>
          10 1 4 4 -1.</_>
        <_>
          10 1 2 2 2.</_>
        <_>
          12 3 2 2 2.</_></rects>
      <tilted>0</tilted></_>
    <_>
      <rects>
        <_>
          10 4 7 14 -1.</_>
        <_>
          10 11 7 7 2.</_></rects>
      <tilted>0</tilted></_>
    <_>
      <rects>
        <_>
          10 7 2 4 -1.</_>
        <_>
          11 7 1 4 2.</_></rects>
      <tilted>0</tilted></_>
    <_>
      <rects>
        <_>
          10 8 2 2 -1.</_>
        <_>
          11 8 1 2 2.</_></rects>
      <tilted>0</tilted></_>
    <_>
      <rects>
        <_>
          10 9 2 14 -1.</_>
        <_>
          10 9 1 7 2.</_>
        <_>
          11 16 1 7 2.</_></rects>
      <tilted>0</tilted></_>
    <_>
      <rects>
        <_>
          10 12 2 4 -1.</_>
        <_>
          11 12 1 4 2.</_></rects>
      <tilted>0</tilted></_>
    <_>
      <rects>
        <_>
          10 15 4 2 -1.</_>
        <_>
          10 16 4 1 2.</_></rects>
      <tilted>0</tilted></_>
    <_>
      <rects>
        <_>
          10 17 4 2 -1.</_>
        <_>
          10 18 4 1 2.</_></rects>
      <tilted>0</tilted></_>
    <_>
      <rects>
        <_>
          11 0 2 6 -1.</_>
        <_>
          11 0 1 3 2.</_>
        <_>
          12 3 1 3 2.</_></rects>
      <tilted>0</tilted></_>
    <_>
      <rects>
        <_>
          11 0 10 2 -1.</_>
        <_>
          11 1 10 1 2.</_></rects>
      <tilted>0</tilted></_>
    <_>
      <rects>
        <_>
          11 4 12 4 -1.</_>
        <_>
          11 4 6 2 2.</_>
        <_>
          17 6 6 2 2.</_></rects>
      <tilted>0</tilted></_>
    <_>
      <rects>
        <_>
          11 5 6 6 -1.</_>
        <_>
          14 5 3 6 2.</_></rects>
      <tilted>0</tilted></_>
    <_>
      <rects>
        <_>
          11 8 6 2 -1.</_>
        <_>
          14 8 3 2 2.</_></rects>
      <tilted>0</tilted></_>
    <_>
      <rects>
        <_>
          11 9 6 2 -1.</_>
        <_>
          14 9 3 2 2.</_></rects>
      <tilted>0</tilted></_>
    <_>
      <rects>
        <_>
          11 14 4 10 -1.</_>
        <_>
          11 19 4 5 2.</_></rects>
      <tilted>0</tilted></_>
    <_>
      <rects>
        <_>
          12 4 4 6 -1.</_>
        <_>
          14 4 2 6 2.</_></rects>
      <tilted>0</tilted></_>
    <_>
      <rects>
        <_>
          12 4 10 8 -1.</_>
        <_>
          12 4 5 4 2.</_>
        <_>
          17 8 5 4 2.</_></rects>
      <tilted>0</tilted></_>
    <_>
      <rects>
        <_>
          12 7 4 7 -1.</_>
        <_>
          14 7 2 7 2.</_></rects>
      <tilted>0</tilted></_>
    <_>
      <rects>
        <_>
          12 8 7 6 -1.</_>
        <_>
          12 11 7 3 2.</_></rects>
      <tilted>0</tilted></_>
    <_>
      <rects>
        <_>
          13 2 8 4 -1.</_>
        <_>
          13 2 4 2 2.</_>
        <_>
          17 4 4 2 2.</_></rects>
      <tilted>0</tilted></_>
    <_>
      <rects>
        <_>
          13 3 5 8 -1.</_>
        <_>
          13 7 5 4 2.</_></rects>
      <tilted>0</tilted></_>
    <_>
      <rects>
        <_>
          13 7 2 12 -1.</_>
        <_>
          13 13 2 6 2.</_></rects>
      <tilted>0</tilted></_>
    <_>
      <rects>
        <_>
          13 11 3 4 -1.</_>
        <_>
          13 13 3 2 2.</_></rects>
      <tilted>0</tilted></_>
    <_>
      <rects>
        <_>
          13 11 6 5 -1.</_>
        <_>
          16 11 3 5 2.</_></rects>
      <tilted>0</tilted></_>
    <_>
      <rects>
        <_>
          13 14 4 2 -1.</_>
        <_>
          15 14 2 2 2.</_></rects>
      <tilted>0</tilted></_>
    <_>
      <rects>
        <_>
          14 6 6 2 -1.</_>
        <_>
          14 7 6 1 2.</_></rects>
      <tilted>0</tilted></_>
    <_>
      <rects>
        <_>
          14 7 6 2 -1.</_>
        <_>
          14 8 6 1 2.</_></rects>
      <tilted>0</tilted></_>
    <_>
      <rects>
        <_>
          14 8 3 4 -1.</_>
        <_>
          14 10 3 2 2.</_></rects>
      <tilted>0</tilted></_>
    <_>
      <rects>
        <_>
          14 14 6 4 -1.</_>
        <_>
          14 16 6 2 2.</_></rects>
      <tilted>0</tilted></_>
    <_>
      <rects>
        <_>
          15 1 4 1 -1.</_>
        <_>
          17 1 2 1 2.</_></rects>
      <tilted>0</tilted></_>
    <_>
      <rects>
        <_>
          15 3 3 2 -1.</_>
        <_>
          15 4 3 1 2.</_></rects>
      <tilted>0</tilted></_>
    <_>
      <rects>
        <_>
          15 3 6 6 -1.</_>
        <_>
          15 3 3 3 2.</_>
        <_>
          18 6 3 3 2.</_></rects>
      <tilted>0</tilted></_>
    <_>
      <rects>
        <_>
          15 6 6 8 -1.</_>
        <_>
          15 10 6 4 2.</_></rects>
      <tilted>0</tilted></_>
    <_>
      <rects>
        <_>
          15 8 7 6 -1.</_>
        <_>
          15 11 7 3 2.</_></rects>
      <tilted>0</tilted></_>
    <_>
      <rects>
        <_>
          16 0 8 21 -1.</_>
        <_>
          20 0 4 21 2.</_></rects>
      <tilted>0</tilted></_>
    <_>
      <rects>
        <_>
          16 2 8 18 -1.</_>
        <_>
          20 2 4 18 2.</_></rects>
      <tilted>0</tilted></_>
    <_>
      <rects>
        <_>
          16 4 8 2 -1.</_>
        <_>
          20 4 4 2 2.</_></rects>
      <tilted>0</tilted></_>
    <_>
      <rects>
        <_>
          16 5 6 4 -1.</_>
        <_>
          16 5 3 2 2.</_>
        <_>
          19 7 3 2 2.</_></rects>
      <tilted>0</tilted></_>
    <_>
      <rects>
        <_>
          16 8 2 4 -1.</_>
        <_>
          16 10 2 2 2.</_></rects>
      <tilted>0</tilted></_>
    <_>
      <rects>
        <_>
          17 0 6 15 -1.</_>
        <_>
          20 0 3 15 2.</_></rects>
      <tilted>0</tilted></_>
    <_>
      <rects>
        <_>
          17 12 6 6 -1.</_>
        <_>
          17 15 6 3 2.</_></rects>
      <tilted>0</tilted></_>
    <_>
      <rects>
        <_>
          18 3 6 20 -1.</_>
        <_>
          21 3 3 20 2.</_></rects>
      <tilted>0</tilted></_>
    <_>
      <rects>
        <_>
          18 5 6 4 -1.</_>
        <_>
          21 5 3 4 2.</_></rects>
      <tilted>0</tilted></_>
    <_>
      <rects>
        <_>
          19 1 4 16 -1.</_>
        <_>
          21 1 2 16 2.</_></rects>
      <tilted>0</tilted></_>
    <_>
      <rects>
        <_>
          21 12 3 9 -1.</_>
        <_>
          21 15 3 3 2.</_></rects>
      <tilted>0</tilted></_>
    <_>
      <rects>
        <_>
          22 4 1 12 -1.</_>
        <_>
          22 8 1 4 2.</_></rects>
      <tilted>0</tilted></_></features></cascade>
</opencv_storage>
