<?xml version="1.0"?>
<opencv_storage>
<stage7>
  <maxWeakCount>6</maxWeakCount>
  <stageThreshold>-4.3305966258049011e-01</stageThreshold>
  <weakClassifiers>
    <_>
      <internalNodes>
        0 -1 85395 6.5182931721210480e-03</internalNodes>
      <leafValues>
        -4.7252747416496277e-01 5.9154927730560303e-01</leafValues></_>
    <_>
      <internalNodes>
        0 -1 114904 1.4805543469265103e-04</internalNodes>
      <leafValues>
        -6.3092619180679321e-01 4.2113053798675537e-01</leafValues></_>
    <_>
      <internalNodes>
        0 -1 13340 -8.6951125413179398e-03</internalNodes>
      <leafValues>
        -2.2350655496120453e-01 9.6489721536636353e-01</leafValues></_>
    <_>
      <internalNodes>
        0 -1 116842 -2.9619764536619186e-03</internalNodes>
      <leafValues>
        -8.2948750257492065e-01 2.8827837109565735e-01</leafValues></_>
    <_>
      <internalNodes>
        0 -1 140498 -9.3151000328361988e-04</internalNodes>
      <leafValues>
        -7.6733231544494629e-01 2.5428119301795959e-01</leafValues></_>
    <_>
      <internalNodes>
        0 -1 106824 6.8984262179583311e-04</internalNodes>
      <leafValues>
        -5.0033801794052124e-01 3.7458688020706177e-01</leafValues></_></weakClassifiers></stage7>
</opencv_storage>
