<?xml version="1.0"?>
<opencv_storage>
<stage16>
  <maxWeakCount>8</maxWeakCount>
  <stageThreshold>-5.9741461277008057e-01</stageThreshold>
  <weakClassifiers>
    <_>
      <internalNodes>
        0 -1 36119 -2.1825224161148071e-02</internalNodes>
      <leafValues>
        -9.3548387289047241e-01 4.4767442345619202e-01</leafValues></_>
    <_>
      <internalNodes>
        0 -1 27127 6.8242067936807871e-04</internalNodes>
      <leafValues>
        3.5069218277931213e-01 -5.7844060659408569e-01</leafValues></_>
    <_>
      <internalNodes>
        0 -1 66346 3.0798763036727905e-03</internalNodes>
      <leafValues>
        -6.7378759384155273e-01 2.6022124290466309e-01</leafValues></_>
    <_>
      <internalNodes>
        0 -1 160873 -1.7823226749897003e-02</internalNodes>
      <leafValues>
        -2.2489251196384430e-01 8.3787649869918823e-01</leafValues></_>
    <_>
      <internalNodes>
        0 -1 98633 -4.1013015434145927e-03</internalNodes>
      <leafValues>
        6.2181180715560913e-01 -2.6371318101882935e-01</leafValues></_>
    <_>
      <internalNodes>
        0 -1 69897 -2.3783333599567413e-03</internalNodes>
      <leafValues>
        6.6843795776367188e-01 -2.4710385501384735e-01</leafValues></_>
    <_>
      <internalNodes>
        0 -1 19622 2.5819020811468363e-03</internalNodes>
      <leafValues>
        -2.4554048478603363e-01 6.3837116956710815e-01</leafValues></_>
    <_>
      <internalNodes>
        0 -1 138418 2.9848625417798758e-03</internalNodes>
      <leafValues>
        2.5438034534454346e-01 -8.3297061920166016e-01</leafValues></_></weakClassifiers></stage16>
</opencv_storage>
