<?xml version="1.0"?>
<opencv_storage>
<stage18>
  <maxWeakCount>7</maxWeakCount>
  <stageThreshold>-1.2213446199893951e-01</stageThreshold>
  <weakClassifiers>
    <_>
      <internalNodes>
        0 -1 44138 -4.5092292129993439e-03</internalNodes>
      <leafValues>
        -8.9999997615814209e-01 4.8059701919555664e-01</leafValues></_>
    <_>
      <internalNodes>
        0 -1 27968 7.1719931438565254e-03</internalNodes>
      <leafValues>
        -5.4672336578369141e-01 4.9675154685974121e-01</leafValues></_>
    <_>
      <internalNodes>
        0 -1 136723 -2.2869147360324860e-03</internalNodes>
      <leafValues>
        5.4439371824264526e-01 -4.1163018345832825e-01</leafValues></_>
    <_>
      <internalNodes>
        0 -1 94213 -1.3423813879489899e-01</internalNodes>
      <leafValues>
        -7.7608114480972290e-01 2.3168465495109558e-01</leafValues></_>
    <_>
      <internalNodes>
        0 -1 69350 7.4464557692408562e-03</internalNodes>
      <leafValues>
        2.4838653206825256e-01 -6.8558365106582642e-01</leafValues></_>
    <_>
      <internalNodes>
        0 -1 136407 -6.4943446777760983e-03</internalNodes>
      <leafValues>
        7.1817195415496826e-01 -2.7456891536712646e-01</leafValues></_>
    <_>
      <internalNodes>
        0 -1 132160 5.5125420913100243e-03</internalNodes>
      <leafValues>
        2.0186170935630798e-01 -9.4571650028228760e-01</leafValues></_></weakClassifiers></stage18>
</opencv_storage>
