<?xml version="1.0"?>
<opencv_storage>
<stage5>
  <maxWeakCount>5</maxWeakCount>
  <stageThreshold>-4.0614488720893860e-01</stageThreshold>
  <weakClassifiers>
    <_>
      <internalNodes>
        0 -1 92817 4.1120000183582306e-02</internalNodes>
      <leafValues>
        5.9090906381607056e-01 -8.5074627399444580e-01</leafValues></_>
    <_>
      <internalNodes>
        0 -1 136900 4.1739000007510185e-03</internalNodes>
      <leafValues>
        -6.5515148639678955e-01 4.8692959547042847e-01</leafValues></_>
    <_>
      <internalNodes>
        0 -1 98626 -1.8083859235048294e-02</internalNodes>
      <leafValues>
        8.6695891618728638e-01 -3.3826944231987000e-01</leafValues></_>
    <_>
      <internalNodes>
        0 -1 83600 -5.5911969393491745e-03</internalNodes>
      <leafValues>
        5.3616303205490112e-01 -5.5024719238281250e-01</leafValues></_>
    <_>
      <internalNodes>
        0 -1 26291 -2.2721141576766968e-02</internalNodes>
      <leafValues>
        -3.7675592303276062e-01 7.8304111957550049e-01</leafValues></_></weakClassifiers></stage5>
</opencv_storage>
