<?xml version="1.0"?>
<opencv_storage>
<stage10>
  <maxWeakCount>7</maxWeakCount>
  <stageThreshold>-3.7968999147415161e-01</stageThreshold>
  <weakClassifiers>
    <_>
      <internalNodes>
        0 -1 68040 -7.0821808185428381e-04</internalNodes>
      <leafValues>
        -7.9591834545135498e-01 5.0306749343872070e-01</leafValues></_>
    <_>
      <internalNodes>
        0 -1 16439 6.3538923859596252e-03</internalNodes>
      <leafValues>
        -3.7469214200973511e-01 5.6958812475204468e-01</leafValues></_>
    <_>
      <internalNodes>
        0 -1 145755 6.5165930427610874e-03</internalNodes>
      <leafValues>
        -3.6620423197746277e-01 5.8529186248779297e-01</leafValues></_>
    <_>
      <internalNodes>
        0 -1 86206 2.2105120122432709e-02</internalNodes>
      <leafValues>
        -6.1103665828704834e-01 3.4981513023376465e-01</leafValues></_>
    <_>
      <internalNodes>
        0 -1 144957 -1.3098040223121643e-01</internalNodes>
      <leafValues>
        7.7357900142669678e-01 -3.2368898391723633e-01</leafValues></_>
    <_>
      <internalNodes>
        0 -1 118728 -6.4324978739023209e-03</internalNodes>
      <leafValues>
        5.2023458480834961e-01 -4.5496925711631775e-01</leafValues></_>
    <_>
      <internalNodes>
        0 -1 151112 2.1751262247562408e-03</internalNodes>
      <leafValues>
        3.4680077433586121e-01 -6.5729826688766479e-01</leafValues></_></weakClassifiers></stage10>
</opencv_storage>
